#include "model_data.h"
const float W1_data[] = {
    0.57361156f, 0.16902283f, 0.3204128f, 0.37673968f, -0.11376603f, 0.38983405f, 0.47470963f, -0.4286094f, 0.01755726f, -0.2889005f, 0.07595641f, 0.117614165f, 0.25267643f, -0.13836554f, -0.31649056f, 0.3871528f, 0.26868173f, 0.36658776f, 0.25778005f, 0.1743272f, -0.09107878f, 0.26606947f, -0.2579932f, -0.27251986f, -0.57364994f, 0.09347172f, 0.061440017f, 0.18551174f, -0.2208884f, -0.1484554f, 0.2027158f, 0.035973907f, -0.009391214f, 0.010395113f, -0.12698805f, 0.5223026f, 0.50654995f, 0.2932177f, 0.24144694f, -0.52414197f, 0.1664517f, 0.44278654f, -0.34422335f, 0.26790354f, -0.3260057f, 0.09771423f, 0.09749274f, 0.46975806f
};

const float b1_data[] = {
    0.19196449f, -0.01728584f, -0.039409142f, -0.18067665f, 0.25358713f, 0.0044722813f, 0.3335058f, 0.0f, -0.40302557f, -0.057532612f, -0.1387172f, 0.07666904f, 0.89431286f, 1.429783f, -0.00302516f, 0.060069278f
};

const float W2_data[] PROGMEM = {
    0.29865667f, 0.26629657f, 0.22844318f, -0.12671365f, -0.02314888f, -0.4266038f, 0.030448794f, 0.1227625f, -0.3618186f, 0.3739797f, -0.31915584f, -0.32408556f, -0.19493613f, -0.0053221355f, -0.279735f, 0.01580141f, 0.06862184f, -0.05347746f, -0.25964302f, 0.11476018f, 0.21574168f, 0.29010525f, -0.19063473f, -0.24359678f, 0.3266586f, 0.3744414f, -0.3846467f, 0.30253038f, 0.30839586f, 0.63433933f, 0.098722145f, -0.06836351f, -0.11122429f, -0.030899439f, -0.40958712f, 0.29421023f, 0.05082758f, 0.1655644f, 0.35224268f, 0.1923745f, -0.071686916f, 0.18357615f, -0.22497363f, -0.32045367f, -0.33317256f, 0.36454183f, 0.4000236f, 0.036382604f, -0.46381208f, -0.027733795f, 0.006739199f, 0.08047689f, -0.15142602f, 0.079200126f, -0.40689185f, 0.3779931f, -0.46866524f, -0.096039824f, -0.42676204f, 0.3034056f, 0.41963646f, -0.27043027f, -0.14763236f, -0.080300406f, 0.22429165f, -0.40098128f, 0.12572876f, 0.2859634f, 0.21069324f, -0.38725978f, -0.38561374f, -0.3443741f, -0.07801857f, 0.40999198f, -0.28778225f, 0.2967597f, -0.045309816f, 0.2509402f, -0.5005932f, -0.15896527f, 0.0483062f, 0.113369845f, -0.3211438f, 0.23771907f, 0.257956f, -0.036626834f, 0.010141909f, -0.10276938f, -0.027133422f, 0.13715614f, 0.20979151f, -0.16819963f, -0.13833295f, -0.12970713f, -0.39092264f, 0.09167622f, -0.34349695f, -0.23310342f, -0.069242f, 0.24146084f, 0.029016674f, -0.33770615f, 0.124186665f, -0.07959112f, -0.10152934f, -0.27108982f, -0.039287746f, -0.102959275f, -1.0618638f, 0.4087036f, 0.35835513f, 0.08140964f, -0.19534467f, 0.43203256f, 0.1563051f, -0.40845054f, -0.36882368f, -0.23268937f, -0.15069309f, 0.40171465f, 0.36410907f, -0.11960566f, -0.2663541f, -0.1764088f, -0.35285252f, -0.29277343f, -0.2812643f, -0.3075332f, 0.2318432f, 0.050973367f, -0.26736504f, -0.19042078f, -0.27757013f, -0.04622991f, -0.30849877f, -0.31105444f, -0.34600666f, 0.06255836f, 0.33465913f, -0.43591252f, -0.41242072f, 0.087747164f, -0.29373562f, -0.08348297f, -0.014323698f, 0.18154903f, 0.15412834f, 0.34942535f, 0.07905392f, 0.22645767f, -0.079197496f, -0.34180745f, 0.32090837f, 0.083838426f, -0.38063446f, -0.32326683f, 0.30145222f, 0.5889776f, -0.40514952f, -0.36244425f, -0.2677251f, 0.043643776f, -0.07063842f, 0.20269199f, -0.086706065f, 0.349878f, -0.36859316f, 0.14136271f, -0.0914659f, 0.2936198f, -0.02186814f, 0.75457245f, 0.30843577f, 0.14530794f, -0.15898803f, 0.033475325f, -0.035908148f, 0.3459916f, 0.19393554f, 0.11302105f, 0.05989453f, 0.18220355f, -0.22736195f, -0.23300745f, -0.111061536f, -0.19264941f, 0.2857047f, -0.048421927f, 0.098419555f, -0.07789286f, 0.37545222f, 0.37622005f, 0.015300423f, -0.405922f, -0.24806072f, -0.34798044f, 0.25664952f, -0.38386205f, 0.16889593f, 0.10112427f, 0.12284228f, -0.41276184f, -0.4251573f, 0.16739206f, 0.35055235f, 0.021409934f, 0.099207245f, -0.25619617f, 0.2255747f, -0.02576398f, -0.084522516f, 0.23408967f, 0.19435415f, -0.35132003f, -0.0018406212f, 0.27997252f, 0.20275988f, -0.25599495f, -0.1252524f, 0.039672103f, -0.14190598f, 0.3331135f, -0.20646074f, 0.23030636f, 0.12175474f, -0.080319054f, -0.048947424f, -0.17170212f, 0.16138136f, 0.076706834f, -0.27887577f, 0.14544092f, 0.22710781f, -0.14998318f, 0.17794862f, -0.005740476f, -0.3048686f, 0.012366569f, -0.11992881f, -0.13543484f, -0.45481002f, 0.31830776f, -0.20516944f, -0.37978354f, 0.045466974f, -0.3222766f, -0.42211455f, 0.3789245f, 0.30948728f, 0.3074896f, -0.43263763f, 0.41082436f, -0.40965596f, -0.3496319f, 0.032914452f, 0.23103201f
};

const float b2_data[] PROGMEM = {
    -0.070167035f, 0.009458577f, 0.0f, -0.06358535f, 0.34219083f, -0.112235785f, 0.0f, -0.091005735f, -0.07570882f, -0.06558101f, 0.0f, 0.04689837f, -0.52454966f, 0.615195f, -0.1556902f, 0.107496224f
};

const float W3_data[] PROGMEM = {
    -0.44736233f, -0.14896889f, 0.44040355f, -0.39912066f, 0.39718252f, -0.110280216f, -0.51131284f, 0.049436457f, -0.15960981f, 0.56808066f, -0.3622311f, -0.3286311f, -0.30452728f, -0.46458942f, -0.1585218f, -0.32357636f, -0.010559547f, 0.33314177f, -0.32414478f, 0.009267901f, 0.4002636f, -0.13705376f, 0.50751734f, -0.2915155f, -0.0774567f, -0.11145898f, 0.6438133f, -0.06536147f, -0.25056165f, -0.43167198f, 0.43127707f, 0.5168021f
};

const float b3_data[] PROGMEM = {
    0.06985333f, 0.20259334f
};

